{"estimator_class": "Pipeline", "params": {"memory": null, "steps": [["standardnormalvariate", {"estimator_class": "StandardNormalVariate", "params": {}, "param_types": {}, "param_dtypes": {}, "producer_version": "1.7.1", "producer_name": "chemotools", "domain": "sklearn", "attributes": {"n_features_in_": 31}, "attribute_types": {"n_features_in_": "int"}, "attribute_dtypes": {}}], ["savitzkygolay", {"estimator_class": "SavitzkyGolay", "params": {"deriv": 2, "derivate_order": "deprecated", "mode": "nearest", "polynomial_order": "deprecated", "polyorder": 3, "window_length": 31, "window_size": "deprecated"}, "param_types": {"deriv": "int", "derivate_order": "str", "mode": "str", "polynomial_order": "str", "polyorder": "int", "window_length": "int", "window_size": "str"}, "param_dtypes": {}, "producer_version": "1.7.1", "producer_name": "chemotools", "domain": "sklearn", "attributes": {"deriv_": 2, "n_features_in_": 31, "polyorder_": 3, "window_length_": 31}, "attribute_types": {"deriv_": "int", "n_features_in_": "int", "polyorder_": "int", "window_length_": "int"}, "attribute_dtypes": {}}], ["plsregression", {"estimator_class": "PLSRegression", "params": {"copy": true, "max_iter": 500, "n_components": 1, "scale": false, "tol": 1e-06}, "param_types": {"copy": "bool", "max_iter": "int", "n_components": "int", "scale": "bool", "tol": "float"}, "param_dtypes": {}, "producer_version": "1.7.1", "producer_name": "sklearn", "domain": "sklearn", "attributes": {"coef_": [[-2.0811811401180162, -0.530305428462514, 1.222905823210411, 3.103929714754175, 5.003353030869877, 6.831704703271314, 8.527246819084645, 10.077659328453267, 11.490896750905641, 12.727391560461076, 13.773987821081546, 14.609132989654682, 15.136540637615392, 15.29752431677314, 15.057020950689855, 14.372160208386942, 12.886328015915804, 11.054160244753165, 9.016256325908381, 6.834693546254661, 4.599400580880383, 2.3791461076058575, 0.1939014199685948, -1.8782763889903609, -3.7673256555904744, -5.436515486799724, -6.855328069864704, -8.000028957356516, -8.858292239124891, -9.436299202995134, -9.769161244805117]], "intercept_": [4.4546], "n_features_in_": 31, "n_iter_": [1], "x_loadings_": [[-0.0754731312388176], [-0.044762565186966904], [-0.009130240836851109], [0.030119061924649287], [0.07087608979270156], [0.11126997190408006], [0.14974493922519286], [0.1857790587271368], [0.218999723697038], [0.2481638933763833], [0.27272921581108484], [0.29190484014395396], [0.3035731966021308], [0.30644861127301504], [0.2997355022454645], [0.28266019178759494], [0.2508779813868172], [0.2125030071606675], [0.1703474346418915], [0.12579059902873402], [0.08073526284734578], [0.036994190766394326], [-0.00485168768035372], [-0.0433982750860984], [-0.07730803656311475], [-0.10604169883847199], [-0.12938603360093848], [-0.1472175874884409], [-0.15938428503542146], [-0.16602667105765787], [-0.1678740929049097]], "x_rotations_": [[-0.03990752510223139], [-0.010168829992865142], [0.02344973433435351], [0.05951915987480548], [0.09594140213256137], [0.13100081568170083], [0.16351355003449916], [0.19324336304488096], [0.22034278597580986], [0.2440530948479699], [0.2641220190456226], [0.28013627947513514], [0.2902495433061284], [0.2933364731716725], [0.28872471981002346], [0.2755922265646558], [0.24710076833657338], [0.21196817948607757], [0.17289051333318226], [0.13105812800501823], [0.08819544373071392], [0.045621128877697224], [0.0037181414128691402], [-0.03601674102154837], [-0.07224005650956057], [-0.1042474747036324], [-0.13145380368795936], [-0.15340392543446701], [-0.1698614854234801], [-0.1809450124530438], [-0.18732778232974884]], "x_scores_": [[0.01663217597262134], [0.017592379579579966], [-0.1269752591506831], [-0.08912186179917052], [-0.0860393024915367], [0.013498650771949554], [0.012632104244635019], [0.015630337390171587], [0.016865915737591993], [-0.08648246733411258], [0.017954833794308036], [0.011434487596005608], [0.016520776003571186], [0.016603919611633763], [0.017140693005073523], [0.016431349735095597], [-0.009355404674873542], [0.01645065074586769], [0.01565554891841395], [0.0018998998995450214], [0.015728756757757735], [0.018652671782252706], [0.0168405698314351], [0.01670446940077274], [0.016925703480579316], [0.01663692170188533], [0.017742693987807444], [0.016746675587894035], [0.015824127788490298], [0.013510253587357897], [0.01687443388509916], [-0.05204090230152825], [0.017161196227090968], [0.016569134546597815], [0.015684753089561573], [0.012361278322986412], [-0.10729783201521119], [0.01853372550638692], [0.01668048681150449], [0.013196324825936395], [0.01706531649722309], [-0.0037868087817963312], [0.01461303712538002], [0.01691815066922118], [0.01580515337429089], [0.015188975806855137], [0.016898580992473367], [0.01585812477154627], [0.016569875086996866], [0.017247652093918864], [0.016840496648370867], [0.01678988587786344], [0.002256962279364753], [0.016768727133756503], [0.016833204868879174], [-0.11347033870728875], [0.016472081365950002], [-0.01875455368636753], [-0.10103112055689123], [0.01721357710583369], [0.01697749673396695], [0.01685568703149554], [0.016647607110368768], [0.01725025290626983], [0.016975965896270834], [-0.08288631798831504], [0.017077193368355368], [0.017379477090744173], [0.01215000216747519], [0.002860015033786081], [0.01681960933368627], [0.016487176655099075], [-0.058744688012650405], [0.015567702408043104], [0.016753575218039697], [0.01730888148963698], [0.016926576584682038], [0.01659062384318326], [0.012159459578536386], [0.01601165655741325], [0.01671987335765429], [0.004712509890133041], [-0.08472144038083523], [0.01577098056240802], [0.01683632147098239], [0.015422790923295402], [0.016861779510795046], [0.01767276502135874], [-0.08863779036740763], [0.00855786730018415], [0.01646776126759884], [0.013341465903229682], [0.01714511247672036], [0.017318392966903455], [0.017080762462903142], [-0.09592909633013837], [0.016997897479655105], [0.013336433656883133], [0.016397777052199206], [-0.07882196755653482]], "x_weights_": [[-0.03990752510223138], [-0.01016882999286514], [0.023449734334353503], [0.059519159874805466], [0.09594140213256135], [0.1310008156817008], [0.16351355003449913], [0.1932433630448809], [0.2203427859758098], [0.24405309484796983], [0.26412201904562255], [0.2801362794751351], [0.29024954330612834], [0.29333647317167244], [0.2887247198100234], [0.27559222656465576], [0.24710076833657332], [0.21196817948607752], [0.17289051333318223], [0.1310581280050182], [0.0881954437307139], [0.04562112887769722], [0.0037181414128691394], [-0.036016741021548365], [-0.07224005650956056], [-0.10424747470363237], [-0.13145380368795934], [-0.153403925434467], [-0.16986148542348006], [-0.18094501245304379], [-0.1873277823297488]], "y_loadings_": [[52.15009286560967]], "y_rotations_": [[0.01917542127061962]], "y_scores_": [[0.13356447931837387], [0.0967476704787842], [-0.08541883159210215], [-0.08541883159210215], [-0.0835012894650402], [0.01237581688805789], [-0.023673975100706977], [-0.04131536266967703], [0.13011290348966234], [-0.0835012894650402], [-0.04323290479673899], [-0.07583112095679234], [-0.01830485714493349], [0.041138948793987315], [-0.07640638359491093], [-0.050903073304986834], [-0.08158374733797823], [-0.05473815755911076], [0.07373716495404069], [-0.06432586819442057], [-0.07659813780761712], [-0.08522707737939596], [0.16156059437347853], [0.01927896854548096], [0.1686555002436078], [-0.02981010990730526], [-0.07966620521091626], [-0.07544761253137995], [-0.08120023891256584], [-0.06432586819442057], [-0.006799604382561725], [-0.08541883159210215], [0.23097561937312155], [0.14315218995368367], [0.21045791861355856], [-0.053587632282873575], [-0.08158374733797823], [-0.04323290479673899], [0.0814073334622885], [-0.08120023891256584], [-0.02981010990730526], [-0.08541883159210215], [-0.035562736288491145], [-0.04323290479673899], [-0.01562029816704674], [0.10019924630749574], [0.13356447931837387], [-0.0681609524485445], [0.002788106252748083], [0.13126342876589953], [0.1466037657823952], [-0.07966620521091626], [-0.07583112095679234], [0.11208800749527993], [0.09118679831030455], [-0.08158374733797823], [0.03155123815867751], [-0.07909094257279767], [-0.08541883159210215], [-0.050903073304986834], [0.17268233871043792], [0.17881847351703614], [0.08524241771641244], [0.03155123815867751], [0.14315218995368367], [-0.08541883159210215], [0.03155123815867751], [0.027332645479141198], [-0.0681609524485445], [-0.052820615432048794], [0.0629989290424937], [0.09866521260584618], [-0.08541883159210215], [-0.052820615432048794], [0.0008705641256861285], [-0.010634688636685643], [0.11592309174940382], [0.050726659429297126], [-0.05473815755911076], [-0.016387315017871527], [0.0626154206170813], [-0.0777486630838543], [-0.08541883159210215], [-0.06432586819442057], [-0.07007849457560646], [-0.03364519416142918], [0.17594216032644325], [-0.06432586819442057], [-0.08215900997609682], [-0.03326168573601679], [0.01237581688805789], [-0.037480278415553105], [0.01966247697089336], [-0.022139941399057415], [0.1619441027988909], [-0.08541883159210215], [0.07181962282697871], [-0.08541883159210215], [-0.060490783940296645], [-0.08541883159210215]], "y_weights_": [[52.15009286560967]], "_x_mean": [-0.010461431079267709, -0.008416689195247917, -0.005967151109530212, -0.003167286347458157, -8.379986417099574e-05, 0.003203357459834052, 0.00658850303856006, 0.009948213398546997, 0.01314683513042589, 0.016069715686178744, 0.018591597352914675, 0.020596861949155772, 0.022001142539003603, 0.022713652875498175, 0.02264429697534801, 0.021714452938070953, 0.019694228273072857, 0.017252153130750035, 0.01450107072894529, 0.011575585352634478, 0.008586557990877203, 0.005646195139770709, 0.002858118028741562, 0.0002920566628184075, -0.0020021152760965775, -0.003982555868842069, -0.005625981903172741, -0.00692068216148174, -0.00786973823501725, -0.008481907987324521, -0.008769299317860295], "_predict_1d": true}, "attribute_types": {"coef_": "ndarray", "intercept_": "ndarray", "n_features_in_": "int", "n_iter_": ["int"], "x_loadings_": "ndarray", "x_rotations_": "ndarray", "x_scores_": "ndarray", "x_weights_": "ndarray", "y_loadings_": "ndarray", "y_rotations_": "ndarray", "y_scores_": "ndarray", "y_weights_": "ndarray", "_x_mean": "ndarray", "_predict_1d": "bool"}, "attribute_dtypes": {"coef_": "float64", "intercept_": "float64", "n_iter_": "int32", "x_loadings_": "float64", "x_rotations_": "float64", "x_scores_": "float64", "x_weights_": "float64", "y_loadings_": "float64", "y_rotations_": "float64", "y_scores_": "float64", "y_weights_": "float64", "_x_mean": "float64"}}]], "transform_input": null, "verbose": false}, "param_types": {"memory": "NoneType", "steps": [["str", "StandardNormalVariate"], ["str", "SavitzkyGolay"], ["str", "PLSRegression"]], "transform_input": "NoneType", "verbose": "bool"}, "param_dtypes": {"steps": ""}, "producer_version": "1.7.1", "producer_name": "sklearn", "domain": "sklearn", "attributes": {}, "attribute_types": {}, "attribute_dtypes": {}}